Language model created by QuickLM on Tue Mar 11 14:58:54 EDT 2014
Copyright (c) 1996-2010 Carnegie Mellon University and Alexander I. Rudnicky

The model is in standard ARPA format, designed by Doug Paul while he was at MITRE.

The code that was used to produce this language model is available in Open Source.
Please visit http://www.speech.cs.cmu.edu/tools/ for more information

The (fixed) discount mass is 0.5. The backoffs are computed using the ratio method.
This model based on a corpus of 26 sentences and 28 words

\data\
ngram 1=28
ngram 2=52
ngram 3=26

\1-grams:
-0.7782 </s> -0.3010
-0.7782 <s> -0.2218
-2.1931 CALCULATE-POSE-DISTRIBUTION -0.2218
-2.1931 CLOSE-LEFT-HAND -0.2218
-2.1931 CLOSE-RIGHT-HAND -0.2218
-2.1931 CONTINUE-EXECUTION -0.2218
-2.1931 CREATE-NEW-ACTION -0.2218
-2.1931 DELETE-ALL-STEPS -0.2218
-2.1931 DELETE-LAST-STEP -0.2218
-2.1931 EDIT-ACTION -0.2218
-2.1931 EXECUTE-ACTION -0.2218
-2.1931 EXECUTE-GENERATED-ACTION -0.2218
-2.1931 FREEZE-LEFT-ARM -0.2218
-2.1931 FREEZE-RIGHT-ARM -0.2218
-2.1931 NEXT-ACTION -0.2218
-2.1931 OPEN-LEFT-HAND -0.2218
-2.1931 OPEN-RIGHT-HAND -0.2218
-2.1931 PREVIOUS-ACTION -0.2218
-2.1931 RECORD-MARKER-POSE -0.2218
-2.1931 RECORD-OBJECT-POSE -0.2218
-2.1931 RELAX-LEFT-ARM -0.2218
-2.1931 RELAX-RIGHT-ARM -0.2218
-2.1931 SAVE-ACTION -0.2218
-2.1931 SAVE-POSE -0.2218
-2.1931 START-RECORDING-MOTION -0.2218
-2.1931 STOP-EXECUTION -0.2218
-2.1931 STOP-RECORDING-MOTION -0.2218
-2.1931 UNDO-LAST-COMMAND -0.2218

\2-grams:
-1.7160 <s> CALCULATE-POSE-DISTRIBUTION 0.0000
-1.7160 <s> CLOSE-LEFT-HAND 0.0000
-1.7160 <s> CLOSE-RIGHT-HAND 0.0000
-1.7160 <s> CONTINUE-EXECUTION 0.0000
-1.7160 <s> CREATE-NEW-ACTION 0.0000
-1.7160 <s> DELETE-ALL-STEPS 0.0000
-1.7160 <s> DELETE-LAST-STEP 0.0000
-1.7160 <s> EDIT-ACTION 0.0000
-1.7160 <s> EXECUTE-ACTION 0.0000
-1.7160 <s> EXECUTE-GENERATED-ACTION 0.0000
-1.7160 <s> FREEZE-LEFT-ARM 0.0000
-1.7160 <s> FREEZE-RIGHT-ARM 0.0000
-1.7160 <s> NEXT-ACTION 0.0000
-1.7160 <s> OPEN-LEFT-HAND 0.0000
-1.7160 <s> OPEN-RIGHT-HAND 0.0000
-1.7160 <s> PREVIOUS-ACTION 0.0000
-1.7160 <s> RECORD-MARKER-POSE 0.0000
-1.7160 <s> RECORD-OBJECT-POSE 0.0000
-1.7160 <s> RELAX-LEFT-ARM 0.0000
-1.7160 <s> RELAX-RIGHT-ARM 0.0000
-1.7160 <s> SAVE-ACTION 0.0000
-1.7160 <s> SAVE-POSE 0.0000
-1.7160 <s> START-RECORDING-MOTION 0.0000
-1.7160 <s> STOP-EXECUTION 0.0000
-1.7160 <s> STOP-RECORDING-MOTION 0.0000
-1.7160 <s> UNDO-LAST-COMMAND 0.0000
-0.3010 CALCULATE-POSE-DISTRIBUTION </s> -0.3010
-0.3010 CLOSE-LEFT-HAND </s> -0.3010
-0.3010 CLOSE-RIGHT-HAND </s> -0.3010
-0.3010 CONTINUE-EXECUTION </s> -0.3010
-0.3010 CREATE-NEW-ACTION </s> -0.3010
-0.3010 DELETE-ALL-STEPS </s> -0.3010
-0.3010 DELETE-LAST-STEP </s> -0.3010
-0.3010 EDIT-ACTION </s> -0.3010
-0.3010 EXECUTE-ACTION </s> -0.3010
-0.3010 EXECUTE-GENERATED-ACTION </s> -0.3010
-0.3010 FREEZE-LEFT-ARM </s> -0.3010
-0.3010 FREEZE-RIGHT-ARM </s> -0.3010
-0.3010 NEXT-ACTION </s> -0.3010
-0.3010 OPEN-LEFT-HAND </s> -0.3010
-0.3010 OPEN-RIGHT-HAND </s> -0.3010
-0.3010 PREVIOUS-ACTION </s> -0.3010
-0.3010 RECORD-MARKER-POSE </s> -0.3010
-0.3010 RECORD-OBJECT-POSE </s> -0.3010
-0.3010 RELAX-LEFT-ARM </s> -0.3010
-0.3010 RELAX-RIGHT-ARM </s> -0.3010
-0.3010 SAVE-ACTION </s> -0.3010
-0.3010 SAVE-POSE </s> -0.3010
-0.3010 START-RECORDING-MOTION </s> -0.3010
-0.3010 STOP-EXECUTION </s> -0.3010
-0.3010 STOP-RECORDING-MOTION </s> -0.3010
-0.3010 UNDO-LAST-COMMAND </s> -0.3010

\3-grams:
-0.3010 <s> CALCULATE-POSE-DISTRIBUTION </s>
-0.3010 <s> CLOSE-LEFT-HAND </s>
-0.3010 <s> CLOSE-RIGHT-HAND </s>
-0.3010 <s> CONTINUE-EXECUTION </s>
-0.3010 <s> CREATE-NEW-ACTION </s>
-0.3010 <s> DELETE-ALL-STEPS </s>
-0.3010 <s> DELETE-LAST-STEP </s>
-0.3010 <s> EDIT-ACTION </s>
-0.3010 <s> EXECUTE-ACTION </s>
-0.3010 <s> EXECUTE-GENERATED-ACTION </s>
-0.3010 <s> FREEZE-LEFT-ARM </s>
-0.3010 <s> FREEZE-RIGHT-ARM </s>
-0.3010 <s> NEXT-ACTION </s>
-0.3010 <s> OPEN-LEFT-HAND </s>
-0.3010 <s> OPEN-RIGHT-HAND </s>
-0.3010 <s> PREVIOUS-ACTION </s>
-0.3010 <s> RECORD-MARKER-POSE </s>
-0.3010 <s> RECORD-OBJECT-POSE </s>
-0.3010 <s> RELAX-LEFT-ARM </s>
-0.3010 <s> RELAX-RIGHT-ARM </s>
-0.3010 <s> SAVE-ACTION </s>
-0.3010 <s> SAVE-POSE </s>
-0.3010 <s> START-RECORDING-MOTION </s>
-0.3010 <s> STOP-EXECUTION </s>
-0.3010 <s> STOP-RECORDING-MOTION </s>
-0.3010 <s> UNDO-LAST-COMMAND </s>

\end\
