Language model created by QuickLM on Tue Jun 17 18:08:24 EDT 2014
Copyright (c) 1996-2010 Carnegie Mellon University and Alexander I. Rudnicky

The model is in standard ARPA format, designed by Doug Paul while he was at MITRE.

The code that was used to produce this language model is available in Open Source.
Please visit http://www.speech.cs.cmu.edu/tools/ for more information

The (fixed) discount mass is 0.5. The backoffs are computed using the ratio method.
This model based on a corpus of 28 sentences and 30 words

\data\
ngram 1=30
ngram 2=56
ngram 3=28

\1-grams:
-0.7782 </s> -0.3010
-0.7782 <s> -0.2218
-2.2253 CALCULATE-POSE-DISTRIBUTION -0.2218
-2.2253 CLOSE-LEFT-HAND -0.2218
-2.2253 CLOSE-RIGHT-HAND -0.2218
-2.2253 CONTINUE-EXECUTION -0.2218
-2.2253 CREATE-NEW-ACTION -0.2218
-2.2253 DELETE-ALL-STEPS -0.2218
-2.2253 DELETE-LAST-POSE -0.2218
-2.2253 EDIT-ACTION -0.2218
-2.2253 EXECUTE-ACTION -0.2218
-2.2253 EXECUTE-GENERATED-ACTION -0.2218
-2.2253 FREEZE-LEFT-ARM -0.2218
-2.2253 FREEZE-RIGHT-ARM -0.2218
-2.2253 LOOK-DOWN -0.2218
-2.2253 LOOK-FORWARD -0.2218
-2.2253 NEXT-ACTION -0.2218
-2.2253 OPEN-LEFT-HAND -0.2218
-2.2253 OPEN-RIGHT-HAND -0.2218
-2.2253 PREVIOUS-ACTION -0.2218
-2.2253 RECORD-OBJECT-POSE -0.2218
-2.2253 RELAX-LEFT-ARM -0.2218
-2.2253 RELAX-RIGHT-ARM -0.2218
-2.2253 SAVE-ACTION -0.2218
-2.2253 SAVE-LOCATION -0.2218
-2.2253 SAVE-POSE -0.2218
-2.2253 START-RECORDING-MOTION -0.2218
-2.2253 STOP-EXECUTION -0.2218
-2.2253 STOP-RECORDING-MOTION -0.2218
-2.2253 UNDO-LAST-COMMAND -0.2218

\2-grams:
-1.7482 <s> CALCULATE-POSE-DISTRIBUTION 0.0000
-1.7482 <s> CLOSE-LEFT-HAND 0.0000
-1.7482 <s> CLOSE-RIGHT-HAND 0.0000
-1.7482 <s> CONTINUE-EXECUTION 0.0000
-1.7482 <s> CREATE-NEW-ACTION 0.0000
-1.7482 <s> DELETE-ALL-STEPS 0.0000
-1.7482 <s> DELETE-LAST-POSE 0.0000
-1.7482 <s> EDIT-ACTION 0.0000
-1.7482 <s> EXECUTE-ACTION 0.0000
-1.7482 <s> EXECUTE-GENERATED-ACTION 0.0000
-1.7482 <s> FREEZE-LEFT-ARM 0.0000
-1.7482 <s> FREEZE-RIGHT-ARM 0.0000
-1.7482 <s> LOOK-DOWN 0.0000
-1.7482 <s> LOOK-FORWARD 0.0000
-1.7482 <s> NEXT-ACTION 0.0000
-1.7482 <s> OPEN-LEFT-HAND 0.0000
-1.7482 <s> OPEN-RIGHT-HAND 0.0000
-1.7482 <s> PREVIOUS-ACTION 0.0000
-1.7482 <s> RECORD-OBJECT-POSE 0.0000
-1.7482 <s> RELAX-LEFT-ARM 0.0000
-1.7482 <s> RELAX-RIGHT-ARM 0.0000
-1.7482 <s> SAVE-ACTION 0.0000
-1.7482 <s> SAVE-LOCATION 0.0000
-1.7482 <s> SAVE-POSE 0.0000
-1.7482 <s> START-RECORDING-MOTION 0.0000
-1.7482 <s> STOP-EXECUTION 0.0000
-1.7482 <s> STOP-RECORDING-MOTION 0.0000
-1.7482 <s> UNDO-LAST-COMMAND 0.0000
-0.3010 CALCULATE-POSE-DISTRIBUTION </s> -0.3010
-0.3010 CLOSE-LEFT-HAND </s> -0.3010
-0.3010 CLOSE-RIGHT-HAND </s> -0.3010
-0.3010 CONTINUE-EXECUTION </s> -0.3010
-0.3010 CREATE-NEW-ACTION </s> -0.3010
-0.3010 DELETE-ALL-STEPS </s> -0.3010
-0.3010 DELETE-LAST-POSE </s> -0.3010
-0.3010 EDIT-ACTION </s> -0.3010
-0.3010 EXECUTE-ACTION </s> -0.3010
-0.3010 EXECUTE-GENERATED-ACTION </s> -0.3010
-0.3010 FREEZE-LEFT-ARM </s> -0.3010
-0.3010 FREEZE-RIGHT-ARM </s> -0.3010
-0.3010 LOOK-DOWN </s> -0.3010
-0.3010 LOOK-FORWARD </s> -0.3010
-0.3010 NEXT-ACTION </s> -0.3010
-0.3010 OPEN-LEFT-HAND </s> -0.3010
-0.3010 OPEN-RIGHT-HAND </s> -0.3010
-0.3010 PREVIOUS-ACTION </s> -0.3010
-0.3010 RECORD-OBJECT-POSE </s> -0.3010
-0.3010 RELAX-LEFT-ARM </s> -0.3010
-0.3010 RELAX-RIGHT-ARM </s> -0.3010
-0.3010 SAVE-ACTION </s> -0.3010
-0.3010 SAVE-LOCATION </s> -0.3010
-0.3010 SAVE-POSE </s> -0.3010
-0.3010 START-RECORDING-MOTION </s> -0.3010
-0.3010 STOP-EXECUTION </s> -0.3010
-0.3010 STOP-RECORDING-MOTION </s> -0.3010
-0.3010 UNDO-LAST-COMMAND </s> -0.3010

\3-grams:
-0.3010 <s> CALCULATE-POSE-DISTRIBUTION </s>
-0.3010 <s> CLOSE-LEFT-HAND </s>
-0.3010 <s> CLOSE-RIGHT-HAND </s>
-0.3010 <s> CONTINUE-EXECUTION </s>
-0.3010 <s> CREATE-NEW-ACTION </s>
-0.3010 <s> DELETE-ALL-STEPS </s>
-0.3010 <s> DELETE-LAST-POSE </s>
-0.3010 <s> EDIT-ACTION </s>
-0.3010 <s> EXECUTE-ACTION </s>
-0.3010 <s> EXECUTE-GENERATED-ACTION </s>
-0.3010 <s> FREEZE-LEFT-ARM </s>
-0.3010 <s> FREEZE-RIGHT-ARM </s>
-0.3010 <s> LOOK-DOWN </s>
-0.3010 <s> LOOK-FORWARD </s>
-0.3010 <s> NEXT-ACTION </s>
-0.3010 <s> OPEN-LEFT-HAND </s>
-0.3010 <s> OPEN-RIGHT-HAND </s>
-0.3010 <s> PREVIOUS-ACTION </s>
-0.3010 <s> RECORD-OBJECT-POSE </s>
-0.3010 <s> RELAX-LEFT-ARM </s>
-0.3010 <s> RELAX-RIGHT-ARM </s>
-0.3010 <s> SAVE-ACTION </s>
-0.3010 <s> SAVE-LOCATION </s>
-0.3010 <s> SAVE-POSE </s>
-0.3010 <s> START-RECORDING-MOTION </s>
-0.3010 <s> STOP-EXECUTION </s>
-0.3010 <s> STOP-RECORDING-MOTION </s>
-0.3010 <s> UNDO-LAST-COMMAND </s>

\end\
